{
  "metadata": {
    "total_samples": 3447,
    "collection_config": {
      "general": {
        "project_name": "Unitree Go2 \u8db3\u7aef\u529b\u4f20\u611f\u5668\u9a8c\u8bc1",
        "version": "1.0.0",
        "description": "\u9a8c\u8bc1Unitree Go2\u673a\u5668\u4eba\u8db3\u7aef\u529b\u4f20\u611f\u5668\u7684\u51c6\u786e\u6027\u548c\u53ef\u9760\u6027",
        "network_interface": "eth0",
        "domain_id": 0
      },
      "foot_force_config": {
        "sampling_rate_hz": 500,
        "force_threshold": 5.0,
        "max_force_per_foot": 200.0,
        "max_total_force": 800.0,
        "contact_detection_threshold": 5.0,
        "force_range": {
          "min_fx": -100.0,
          "max_fx": 100.0,
          "min_fy": -100.0,
          "max_fy": 100.0,
          "min_fz": -200.0,
          "max_fz": 200.0
        }
      },
      "data_collection": {
        "default_duration": 30.0,
        "buffer_size": 10000,
        "quality_threshold": 0.75,
        "min_samples_for_validation": 10,
        "save_format": [
          "json",
          "csv"
        ],
        "realtime_display": true
      },
      "static_validation": {
        "calibration_duration": 5.0,
        "stability_check_duration": 10.0,
        "force_accuracy_threshold": 0.05,
        "zero_force_threshold": 2.0,
        "balance_threshold": 0.1,
        "test_weights": [
          0,
          10,
          20,
          50,
          100
        ],
        "acceptable_error_percentage": 5.0
      },
      "dynamic_validation": {
        "step_detection_threshold": 15.0,
        "gait_analysis_duration": 60.0,
        "peak_force_threshold": 150.0,
        "contact_time_min": 0.1,
        "contact_time_max": 2.0,
        "force_rise_time_max": 0.05,
        "acceptable_force_variation": 0.2
      },
      "data_quality": {
        "min_sampling_rate": 450,
        "max_dropout_rate": 0.01,
        "max_latency_ms": 10,
        "consistency_check_window": 100,
        "outlier_detection_threshold": 3.0,
        "signal_noise_ratio_min": 20.0
      },
      "safety_limits": {
        "emergency_stop_force": 300.0,
        "max_force_gradient": 500.0,
        "contact_safety_timeout": 5.0,
        "system_watchdog_timeout": 30.0
      },
      "visualization": {
        "update_rate_hz": 20,
        "display_window_size": 1000,
        "force_scale_factor": 1.0,
        "cop_display_range": 0.5,
        "colors": {
          "foot_fl": "#FF0000",
          "foot_fr": "#00FF00",
          "foot_rl": "#0000FF",
          "foot_rr": "#FFFF00",
          "contact": "#FF00FF",
          "no_contact": "#808080"
        }
      },
      "output": {
        "log_level": "INFO",
        "log_directory": "logs",
        "data_directory": "output",
        "report_directory": "output/reports",
        "backup_data": true,
        "compress_old_data": true,
        "max_log_files": 10,
        "max_data_files": 50
      },
      "test_scenarios": {
        "static_tests": [
          {
            "name": "zero_load_test",
            "description": "\u673a\u5668\u4eba\u60ac\u7a7a\u65f6\u7684\u96f6\u70b9\u6d4b\u8bd5",
            "duration": 10,
            "expected_force_range": [
              0,
              5
            ],
            "robot_position": "suspended"
          },
          {
            "name": "static_standing",
            "description": "\u9759\u6001\u7ad9\u7acb\u6d4b\u8bd5",
            "duration": 30,
            "expected_total_force": 150,
            "tolerance": 10,
            "robot_position": "standing"
          },
          {
            "name": "weight_loading",
            "description": "\u5df2\u77e5\u91cd\u91cf\u8d1f\u8f7d\u6d4b\u8bd5",
            "duration": 15,
            "test_weights": [
              10,
              20,
              50
            ],
            "robot_position": "standing"
          }
        ],
        "dynamic_tests": [
          {
            "name": "slow_walk",
            "description": "\u6162\u901f\u884c\u8d70\u6d4b\u8bd5",
            "duration": 60,
            "gait_speed": 0.2,
            "expected_contact_pattern": "alternating"
          },
          {
            "name": "normal_walk",
            "description": "\u6b63\u5e38\u884c\u8d70\u6d4b\u8bd5",
            "duration": 45,
            "gait_speed": 0.5,
            "expected_contact_pattern": "trot"
          },
          {
            "name": "impact_test",
            "description": "\u8df3\u8dc3\u51b2\u51fb\u6d4b\u8bd5",
            "duration": 30,
            "action": "jump",
            "max_expected_force": 250
          }
        ]
      },
      "validation_criteria": {
        "accuracy": {
          "static_error_max": 0.05,
          "dynamic_error_max": 0.1,
          "repeatability_threshold": 0.03
        },
        "reliability": {
          "min_uptime_percentage": 95.0,
          "max_false_contact_rate": 0.01,
          "max_missed_contact_rate": 0.01
        },
        "performance": {
          "min_response_time_ms": 2,
          "max_response_time_ms": 10,
          "min_bandwidth_hz": 500,
          "max_noise_level": 0.5
        }
      }
    },
    "timestamp": 1751017384.4775004,
    "duration_seconds": 10.011211633682251,
    "contact_events": {
      "0": 887,
      "1": 881,
      "2": 846,
      "3": 842
    },
    "data_quality_avg": 1.0
  },
  "data": [
    {
      "timestamp": 1751017373.0875502,
      "foot_forces": [
        [
          -0.8528972452764556,
          -2.845576843535449,
          23.083705143022893
        ],
        [
          -0.3568058080635741,
          -0.2264321722485152,
          0.6420155659222002
        ],
        [
          0.8268527570711122,
          -0.8691004133835918,
          19.281765597480458
        ],
        [
          -0.349795583684245,
          0.9739857681723292,
          0.9658213160873836
        ]
      ],
      "contact_states": [
        true,
        false,
        true,
        false
      ],
      "total_force": 43.973307622512934,
      "center_of_pressure": [
        0.0,
        0.0
      ],
      "force_magnitude": [
        23.274066778573246,
        0.7686129716466437,
        19.31904515152342,
        1.4155620938609546
      ],
      "stability_index": 0.06503949927138142,
      "force_balance": 0.49701568922661943
    },
    {
      "timestamp": 1751017373.0906446,
      "foot_forces": [
        [
          -0.4741750488134657,
          -0.7683725436797275,
          1.4895524074380664
        ],
        [
          0.02970443112008625,
          0.21983947610129984,
          0.42279779565802267
        ],
        [
          3.937778848481356,
          -4.536030876581942,
          12.464680039273714
        ],
        [
          1.6302407662518723,
          -4.130419032409439,
          27.48384061740851
        ]
      ],
      "contact_states": [
        false,
        false,
        true,
        true
      ],
      "total_force": 41.860870859778316,
      "center_of_pressure": [
        0.0,
        0.0
      ],
      "force_magnitude": [
        1.7418394636999837,
        0.4774617518649479,
        13.836543168520107,
        27.84025038361461
      ],
      "stability_index": 0.0,
      "force_balance": 0.37903135610714567
    },
    {
      "timestamp": 1751017373.0931733,
      "foot_forces": [
        [
          3.356930425364487,
          3.476848063293893,
          41.40948177305691
        ],
        [
          -0.01909232089889379,
          0.6528639564673975,
          0.7727770451636988
        ],
        [
          -0.30899289910832706,
          -0.062141329559652236,
          0.16878121046354044
        ],
        [
          4.393894260692299,
          -3.3301424912122037,
          16.22770116969791
        ]
      ],
      "contact_states": [
        true,
        false,
        false,
        true
      ],
      "total_force": 58.57874119838206,
      "center_of_pressure": [
        0.0,
        0.0
      ],
      "force_magnitude": [
        41.69055810431303,
        1.0118202527640507,
        0.35752657739579025,
        17.138682593447392
      ],
      "stability_index": 0.0,
      "force_balance": 0.5701208307280163
    },
    {
      "timestamp": 1751017373.095659,
      "foot_forces": [
        [
          -3.0188672588717482,
          -4.999498018156828,
          41.0050986587342
        ],
        [
          -2.14223331683285,
          -2.2738057150564828,
          29.867512251689288
        ],
        [
          0.4980906937825911,
          0.09628049147941753,
          0.16863984636126017
        ],
        [
          -0.7866765489685115,
          -0.9593741866580576,
          0.7131301009710953
        ]
      ],
      "contact_states": [
        true,
        true,
        false,
        false
      ],
      "total_force": 71.75438085775585,
      "center_of_pressure": [
        0.0,
        0.0
      ],
      "force_magnitude": [
        41.41891664412249,
        30.03044528671498,
        0.5346060886794037,
        1.431018296051403
      ],
      "stability_index": 0.00012516122529815377,
      "force_balance": 0.43847374785886695
    },
    {
      "timestamp": 1751017373.0981176,
      "foot_forces": [
        [
          -0.29364695347736336,
          -0.8659861595694383,
          0.1344713983935586
        ],
        [
          0.7928791940638058,
          -0.3195730363449507,
          1.2949051628076191
        ],
        [
          -3.7657068224806123,
          0.43250484221402186,
          44.7967830561749
        ],
        [
          0.23842465546881697,
          0.5686209380653295,
          0.7155324130340714
        ]
      ],
      "contact_states": [
        false,
        false,
        true,
        false
      ],
      "total_force": 46.94169203041015,
      "center_of_pressure": [
        0.0,
        0.0
      ],
      "force_magnitude": [
        0.9242527353696502,
        1.5516325991045135,
        44.956861328315775,
        0.9445436578814557
      ],
      "stability_index": 0.0,
      "force_balance": 0.07327844370872832
    },
    {
      "timestamp": 1751017373.1005704,
      "foot_forces": [
        [
          -0.16583344318270576,
          -1.2101992398435115,
          34.660823330596244
        ],
        [
          0.8106756080058233,
          -2.8431207329439823,
          10.783183602747265
        ],
        [
          0.5852962741529473,
          0.2551559280064226,
          0.6872088734364774
        ],
        [
          -0.9398170558058612,
          -0.9490680011100472,
          1.9516880940982044
        ]
      ],
      "contact_states": [
        true,
        true,
        false,
        false
      ],
      "total_force": 48.082903900878186,
      "center_of_pressure": [
        0.0,
        0.0
      ],
      "force_magnitude": [
        34.68234070655844,
        11.181126019058592,
        0.938047073373172,
        2.364967776896611
      ],
      "stability_index": 0.0,
      "force_balance": 0.319734612869323
    },
    {
      "timestamp": 1751017373.103028,
      "foot_forces": [
        [
          0.426303847396146,
          0.8922178187047423,
          0.6253276783506097
        ],
        [
          0.1230131333872373,
          0.29434265588816744,
          1.0889382723728942
        ],
        [
          -0.857269334204213,
          -0.4967027347626167,
          1.9895980648650697
        ],
        [
          -4.855997967681061,
          -3.8825341678832572,
          21.926404215582274
        ]
      ],
      "contact_states": [
        false,
        false,
        false,
        true
      ],
      "total_force": 25.630268231170845,
      "center_of_pressure": [
        0.0,
        0.0
      ],
      "force_magnitude": [
        1.1699667993709773,
        1.1347054204063316,
        2.2226391470057454,
        22.790831262856727
      ],
      "stability_index": 0.0,
      "force_balance": 0.16890934011662562
    },
    {
      "timestamp": 1751017373.1054745,
      "foot_forces": [
        [
          4.458982411269158,
          -4.129086045019196,
          30.927745407878454
        ],
        [
          -0.25654143211013825,
          -4.9664427729081275,
          42.87149519119136
        ],
        [
          -0.9894684007407126,
          0.5940396306586462,
          0.38272629478931863
        ],
        [
          -0.8580564304214799,
          0.21647892720241035,
          1.0042934203537741
        ]
      ],
      "contact_states": [
        true,
        true,
        false,
        false
      ],
      "total_force": 75.1862603142129,
      "center_of_pressure": [
        0.0,
        0.0
      ],
      "force_magnitude": [
        31.519157852419326,
        43.15896740251444,
        1.215898933127505,
        1.3385549065601459
      ],
      "stability_index": 0.010971702537979522,
      "force_balance": 0.434886524228814
    },
    {
      "timestamp": 1751017373.1079206,
      "foot_forces": [
        [
          -2.382405512612069,
          0.6696526678104986,
          41.316319851741014
        ],
        [
          0.3926913209906264,
          0.392219669970604,
          0.9733507689603014
        ],
        [
          -0.6101971380229205,
          0.6224294895789602,
          1.1603587404805886
        ],
        [
          -4.0487091485928115,
          -4.832652582057496,
          46.730399740498726
        ]
      ],
      "contact_states": [
        true,
        false,
        false,
        true
      ],
      "total_force": 90.18042910168063,
      "center_of_pressure": [
        0.0,
        0.0
      ],
      "force_magnitude": [
        41.39036816474817,
        1.120470643314149,
        1.451272346376994,
        47.15375739700464
      ],
      "stability_index": 0.04354052250084861,
      "force_balance": 0.9399639152010111
    },
    {
      "timestamp": 1751017373.1103778,
      "foot_forces": [
        [
          -0.8393022893447113,
          0.07810571856945359,
          1.0369369400249602
        ],
        [
          -0.535144427969221,
          -0.34391897976488806,
          0.14832603873510863
        ],
        [
          0.6200954668452683,
          -0.050603595692595205,
          0.06344312710409539
        ],
        [
          3.18480301467166,
          1.2677562402642337,
          38.83411603750292
        ]
      ],
      "contact_states": [
        false,
        false,
        false,
        true
      ],
      "total_force": 40.08282214336709,
      "center_of_pressure": [
        0.0,
        0.0
      ],
      "force_magnitude": [
        1.336325953411387,
        0.6531924962795234,
        0.6253831963491002,
        38.985109266760205
      ],
      "stability_index": 0.0,
      "force_balance": 0.05702300695579526
    },
    {
      "timestamp": 1751017373.112867,
      "foot_forces": [
        [
          -0.8995441702302891,
          -0.3318871211559422,
          0.5009117772539455
        ],
        [
          -1.6257961040677502,
          -3.8759577683741595,
          41.13676394418519
        ],
        [
          -0.6124412098774623,
          -0.6442918570087506,
          0.1994267322434522
        ],
        [
          -0.15580211185111503,
          -0.6351648249683826,
          1.7216495460196752
        ]
      ],
      "contact_states": [
        false,
        true,
        false,
        false
      ],
      "total_force": 43.55875199970227,
      "center_of_pressure": [
        0.0,
        0.0
      ],
      "force_magnitude": [
        1.0817769566672164,
        41.35093238844605,
        0.9110253860882559,
        1.8416801601375135
      ],
      "stability_index": 0.0,
      "force_balance": 0.06018112703914125
    },
    {
      "timestamp": 1751017373.1154122,
      "foot_forces": [
        [
          0.10281879801659066,
          3.4972127389313084,
          36.74176186942547
        ],
        [
          -1.000470447924874,
          2.028489013696774,
          40.70435778715175
        ],
        [
          2.9066008693042287,
          -2.0638463157611775,
          31.835956426996987
        ],
        [
          2.4672600750970997,
          -2.601671740620927,
          12.284816789785475
        ]
      ],
      "contact_states": [
        true,
        true,
        true,
        true
      ],
      "total_force": 121.56689287335969,
      "center_of_pressure": [
        0.0,
        0.0
      ],
      "force_magnitude": [
        36.90796843387802,
        40.76714917259142,
        32.034917072628296,
        12.797374405818905
      ],
      "stability_index": 0.6408296417761343,
      "force_balance": 0.7988190328668051
    },
    {
      "timestamp": 1751017373.1179605,
      "foot_forces": [
        [
          -2.359501526164226,
          2.0060202171197172,
          46.00900423790946
        ],
        [
          -0.0894540502962915,
          0.2417891351578767,
          0.7164453589063091
        ],
        [
          2.8339002990611544,
          1.3649271265353544,
          33.91923622509268
        ],
        [
          -2.5827419379328376,
          4.287604138899981,
          12.550531828284743
        ]
      ],
      "contact_states": [
        true,
        false,
        true,
        true
      ],
      "total_force": 93.19521765019319,
      "center_of_pressure": [
        0.0,
        0.0
      ],
      "force_magnitude": [
        46.113119993418735,
        0.7614183904353738,
        34.064770703167966,
        13.511844964425018
      ],
      "stability_index": 0.24003917310150902,
      "force_balance": 0.6409850928702097
    },
    {
      "timestamp": 1751017373.1205878,
      "foot_forces": [
        [
          0.47366800546364307,
          0.4857146175518827,
          0.2159820057930535
        ],
        [
          0.27655014836459135,
          -0.8849932149728019,
          1.3120602518239493
        ],
        [
          0.12429716115199962,
          -1.9496559283375947,
          24.884765167398225
        ],
        [
          -4.173027339277736,
          -4.4483978726833335,
          31.864615008549556
        ]
      ],
      "contact_states": [
        false,
        false,
        true,
        true
      ],
      "total_force": 58.27742243356478,
      "center_of_pressure": [
        0.0,
        0.0
      ],
      "force_magnitude": [
        0.711988971775454,
        1.6066098093577976,
        24.96133300646679,
        32.4431208494364
      ],
      "stability_index": 0.03705332646980253,
      "force_balance": 0.45693148939736694
    },
    {
      "timestamp": 1751017373.1231544,
      "foot_forces": [
        [
          -0.8905801976258179,
          -4.589780003847476,
          38.50514251334097
        ],
        [
          3.5397961755349474,
          3.344460508599239,
          31.087230422661875
        ],
        [
          -4.592439179954454,
          -1.0607345217167605,
          18.632078728347903
        ],
        [
          -0.3704929514050028,
          -0.15940177434604585,
          1.8979262507041113
        ]
      ],
      "contact_states": [
        true,
        true,
        true,
        false
      ],
      "total_force": 90.12237791505487,
      "center_of_pressure": [
        0.0,
        0.0
      ],
      "force_magnitude": [
        38.78795191222166,
        31.466354545920723,
        19.219001355078177,
        1.9403087398188008
      ],
      "stability_index": 0.38447262513985336,
      "force_balance": 0.5938054775125761
    },
    {
      "timestamp": 1751017373.125812,
      "foot_forces": [
        [
          -0.6147621951217068,
          -0.3778172790054668,
          1.1677319546562681
        ],
        [
          0.014364935339999718,
          -1.0114372444145294,
          22.917206450935073
        ],
        [
          0.6057107608519461,
          -2.995062021375372,
          37.209853478994674
        ],
        [
          0.8018826254514573,
          0.33150157044192663,
          1.67741079657841
        ]
      ],
      "contact_states": [
        false,
        true,
        true,
        false
      ],
      "total_force": 62.972202681164426,
      "center_of_pressure": [
        0.0,
        0.0
      ],
      "force_magnitude": [
        1.3726894662636933,
        22.939519680358092,
        37.33511052569617,
        1.8885486535125862
      ],
      "stability_index": 0.035323317231259366,
      "force_balance": 0.7730324425774825
    },
    {
      "timestamp": 1751017373.1283822,
      "foot_forces": [
        [
          0.7392787579583606,
          -3.7576558137816507,
          32.22598818666787
        ],
        [
          3.9843105433299932,
          -2.743479661622197,
          37.95224120777348
        ],
        [
          0.09781703115460028,
          0.19074710109712734,
          0.32328643509552024
        ],
        [
          -3.866143417687171,
          3.5742233294301897,
          23.02127969199193
        ]
      ],
      "contact_states": [
        true,
        true,
        false,
        true
      ],
      "total_force": 93.52279552152882,
      "center_of_pressure": [
        0.0,
        0.0
      ],
      "force_magnitude": [
        32.45274757095418,
        38.259299834843354,
        0.3879004347479232,
        23.61570358874977
      ],
      "stability_index": 0.3867481491094351,
      "force_balance": 0.597649379888181
    },
    {
      "timestamp": 1751017373.1310434,
      "foot_forces": [
        [
          3.1882226642705245,
          2.9306849789183653,
          41.38042496352867
        ],
        [
          0.1543929361801577,
          0.5943333632441801,
          1.1618778520118123
        ],
        [
          3.2723475365226324,
          1.4023882109665315,
          32.88532765677367
        ],
        [
          0.597865910558018,
          0.6949166266762703,
          0.2465931238874406
        ]
      ],
      "contact_states": [
        true,
        false,
        true,
        false
      ],
      "total_force": 75.67422359620159,
      "center_of_pressure": [
        0.0,
        0.0
      ],
      "force_magnitude": [
        41.60640874150102,
        1.3141649319636601,
        33.077480650548445,
        0.949294966692156
      ],
      "stability_index": 0.024073186023242377,
      "force_balance": 0.45643536352441794
    },
    {
      "timestamp": 1751017373.133649,
      "foot_forces": [
        [
          -0.9680574813517675,
          -0.22282773045974058,
          0.8673536659700263
        ],
        [
          -0.4881615539820754,
          0.34128207670406696,
          1.4798624673391034
        ],
        [
          1.68521845599955,
          -0.7002234168781305,
          39.01720205709317
        ],
        [
          0.12428504484395475,
          -0.2661430409745602,
          0.7054407874487263
        ]
      ],
      "contact_states": [
        false,
        false,
        true,
        false
      ],
      "total_force": 42.069858977851034,
      "center_of_pressure": [
        0.0,
        0.0
      ],
      "force_magnitude": [
        1.318745565503297,
        1.5952329237150964,
        39.059855740158866,
        0.7641502438835764
      ],
      "stability_index": 0.0,
      "force_balance": 0.10773792682507566
    },
    {
      "timestamp": 1751017373.1363456,
      "foot_forces": [
        [
          -3.373306519000201,
          4.7745970334089005,
          12.284987314100153
        ],
        [
          -1.0692611240522263,
          4.854749366076327,
          25.807891333776215
        ],
        [
          0.3429216769819825,
          -0.3390599572472779,
          1.2426298733978827
        ],
        [
          2.5900611474347457,
          -3.453506222851389,
          16.448764117806043
        ]
      ],
      "contact_states": [
        true,
        true,
        false,
        true
      ],
      "total_force": 55.78427263908029,
      "center_of_pressure": [
        0.0,
        0.0
      ],
      "force_magnitude": [
        13.605031679866388,
        26.282297575646414,
        1.3329238288114962,
        17.00579204218221
      ],
      "stability_index": 0.3676314981777047,
      "force_balance": 0.5596382224195415
    },
    {
      "timestamp": 1751017373.1390007,
      "foot_forces": [
        [
          -1.1489269861884965,
          -0.13763203472145946,
          49.00131335898215
        ],
        [
          3.047552107494674,
          4.945439252981027,
          31.295072083715745
        ],
        [
          0.19218851626551503,
          0.5137212133711115,
          1.979322716795675
        ],
        [
          4.662955746621293,
          -4.216211058200354,
          26.085658954097987
        ]
      ],
      "contact_states": [
        true,
        true,
        false,
        true
      ],
      "total_force": 108.36136711359157,
      "center_of_pressure": [
        0.0,
        0.0
      ],
      "force_magnitude": [
        49.014974106916924,
        31.829647814227936,
        2.053914391613058,
        26.832465318187815
      ],
      "stability_index": 0.37974757459830843,
      "force_balance": 0.7294630905109442
    },
    {
      "timestamp": 1751017373.1416678,
      "foot_forces": [
        [
          0.39723452968793027,
          -0.7802971184840448,
          1.7045470594893768
        ],
        [
          -2.652547751207437,
          -3.0433645163040115,
          18.48572783852752
        ],
        [
          0.35007261370884857,
          0.6638762708854917,
          1.7015490990889879
        ],
        [
          -0.03508317294112828,
          -0.21665485437293164,
          0.12580799410543775
        ]
      ],
      "contact_states": [
        false,
        true,
        false,
        false
      ],
      "total_force": 22.01763199121132,
      "center_of_pressure": [
        0.0,
        0.0
      ],
      "force_magnitude": [
        1.9162827408043877,
        18.921422009765685,
        1.859718224496474,
        0.2529778771509619
      ],
      "stability_index": 0.0,
      "force_balance": 0.23769373808508582
    },
    {
      "timestamp": 1751017373.1443067,
      "foot_forces": [
        [
          0.9009971629709193,
          -0.9239899754037801,
          0.5942221924800839
        ],
        [
          -0.35155003817855013,
          -0.09185540408136905,
          0.1610617081532748
        ],
        [
          3.7307764577124516,
          -4.782209872450711,
          40.404465910454874
        ],
        [
          0.2300320955551547,
          0.2884062977307029,
          0.8582447587477904
        ]
      ],
      "contact_states": [
        false,
        false,
        true,
        false
      ],
      "total_force": 42.01799456983602,
      "center_of_pressure": [
        0.0,
        0.0
      ],
      "force_magnitude": [
        1.4207932208327014,
        0.39744901363010365,
        40.85717917025962,
        0.9341718383007912
      ],
      "stability_index": 0.0,
      "force_balance": 0.04223405675834824
    },
    {
      "timestamp": 1751017373.1470716,
      "foot_forces": [
        [
          0.836657264813286,
          -0.3952367633699576,
          0.1125459183102826
        ],
        [
          -0.09203163878033327,
          0.9546250430790235,
          1.0438287923815632
        ],
        [
          -0.24766941155657873,
          -0.26607758192083564,
          0.8195744528018856
        ],
        [
          -0.3259162908377009,
          2.1587053043215967,
          19.671094269574482
        ]
      ],
      "contact_states": [
        false,
        false,
        false,
        true
      ],
      "total_force": 21.647043433068212,
      "center_of_pressure": [
        0.0,
        0.0
      ],
      "force_magnitude": [
        0.9321341435717895,
        1.417518022183483,
        0.8965710795620897,
        19.791871558344997
      ],
      "stability_index": 0.0,
      "force_balance": 0.09647946096017951
    },
    {
      "timestamp": 1751017373.1498377,
      "foot_forces": [
        [
          0.9778416593076322,
          -0.04257397073975944,
          0.9196390842255657
        ],
        [
          -4.2233357702023735,
          -2.2969861680107915,
          21.404683890086833
        ],
        [
          -2.842655987570674,
          -2.0532469469581285,
          45.22016145709607
        ],
        [
          -3.5506440302179696,
          1.7938160439716135,
          28.09030925299982
        ]
      ],
      "contact_states": [
        false,
        true,
        true,
        true
      ],
      "total_force": 95.63479368440828,
      "center_of_pressure": [
        0.0,
        0.0
      ],
      "force_magnitude": [
        1.3430275123381838,
        21.937939805698406,
        45.3559204326701,
        28.37058904848646
      ],
      "stability_index": 0.33655315981160516,
      "force_balance": 0.7158913704730039
    },
    {
      "timestamp": 1751017373.1525865,
      "foot_forces": [
        [
          -4.624912740187185,
          0.9222162722709619,
          33.00181586948042
        ],
        [
          -1.2350517952161422,
          -3.9159511267172453,
          24.135206099662728
        ],
        [
          0.6689981806717546,
          0.9533201678228918,
          0.5270050826599659
        ],
        [
          -1.8960691627618518,
          -3.0827536762595464,
          17.795388229591744
        ]
      ],
      "contact_states": [
        true,
        true,
        false,
        true
      ],
      "total_force": 75.45941528139485,
      "center_of_pressure": [
        0.0,
        0.0
      ],
      "force_magnitude": [
        33.33706872822319,
        24.481997460111412,
        1.2783240063729624,
        18.159688619036412
      ],
      "stability_index": 0.3699713594588139,
      "force_balance": 0.6871404194033881
    },
    {
      "timestamp": 1751017373.1552978,
      "foot_forces": [
        [
          -0.4182149892137117,
          -0.8544197498702792,
          0.5390475087187305
        ],
        [
          0.580625072083018,
          -0.46433440523113023,
          1.4619047730688124
        ],
        [
          -0.18403900574504117,
          0.9555756458995794,
          0.5112595085482163
        ],
        [
          0.1597004232658561,
          -0.8189841743125712,
          0.5972826574171326
        ]
      ],
      "contact_states": [
        false,
        false,
        false,
        false
      ],
      "total_force": 3.109494447752892,
      "center_of_pressure": [
        0.0,
        0.0
      ],
      "force_magnitude": [
        1.0933933888712175,
        1.640090692533231,
        1.0992640518787948,
        1.0261510004950585
      ],
      "stability_index": 0.4900373701163957,
      "force_balance": 0.6942765840255513
    },
    {
      "timestamp": 1751017373.1581044,
      "foot_forces": [
        [
          0.33728566323212816,
          0.8783621644805544,
          1.777557009760843
        ],
        [
          0.019263327192476698,
          0.34820279291273937,
          1.3628565873207887
        ],
        [
          -2.148939190042883,
          -3.104123218143523,
          32.58630810850069
        ],
        [
          1.2845688337362944,
          -3.3962382037848626,
          26.717975930717635
        ]
      ],
      "contact_states": [
        false,
        false,
        true,
        true
      ],
      "total_force": 62.444697636299956,
      "center_of_pressure": [
        0.0,
        0.0
      ],
      "force_magnitude": [
        2.0112162075626805,
        1.4067673362608413,
        32.804283207198075,
        26.96358264140471
      ],
      "stability_index": 0.09076753302348628,
      "force_balance": 0.499982341126282
    },
    {
      "timestamp": 1751017373.1608565,
      "foot_forces": [
        [
          -0.2162487543536713,
          -4.898674657854367,
          28.610884120934376
        ],
        [
          -4.356174221784287,
          -1.3556919199480664,
          35.51234548612137
        ],
        [
          -0.8988311549509156,
          0.41144818654265203,
          1.1241006935013313
        ],
        [
          0.0008812586325084304,
          -0.21854746617589615,
          1.9250351062680426
        ]
      ],
      "contact_states": [
        true,
        true,
        false,
        false
      ],
      "total_force": 67.17236540682512,
      "center_of_pressure": [
        0.0,
        0.0
      ],
      "force_magnitude": [
        29.028028991111313,
        35.80420137858119,
        1.4969266596763542,
        1.9374013347660046
      ],
      "stability_index": 0.0790941627265066,
      "force_balance": 0.48805964202168794
    },
    {
      "timestamp": 1751017373.1636703,
      "foot_forces": [
        [
          2.752867087995776,
          -1.858506569431376,
          37.517526532083025
        ],
        [
          -2.677459759360683,
          0.694740180511376,
          20.575582700975033
        ],
        [
          -1.170089678645656,
          0.8976309884034528,
          43.62836884845584
        ],
        [
          -0.2983765680668009,
          0.02510031303768212,
          0.10225717820644076
        ]
      ],
      "contact_states": [
        true,
        true,
        true,
        false
      ],
      "total_force": 101.82373525972035,
      "center_of_pressure": [
        0.0,
        0.0
      ],
      "force_magnitude": [
        37.66426849094966,
        20.76068539730988,
        43.65328646991344,
        0.31640975424385337
      ],
      "stability_index": 0.3361349057097909,
      "force_balance": 0.6325486463598886
    },
    {
      "timestamp": 1751017373.1666121,
      "foot_forces": [
        [
          -0.6471256867502708,
          -0.7221511088003898,
          1.853370980456582
        ],
        [
          -3.0672568457873606,
          4.736605843403902,
          13.50203007059497
        ],
        [
          -0.1755188548403559,
          -0.9941736656673954,
          0.9192977227393855
        ],
        [
          -0.7098072149628791,
          0.24405336796691968,
          1.4798614800096812
        ]
      ],
      "contact_states": [
        false,
        true,
        false,
        false
      ],
      "total_force": 17.75456025380062,
      "center_of_pressure": [
        0.0,
        0.0
      ],
      "force_magnitude": [
        2.0917117080497096,
        14.63380727975629,
        1.3653924157343325,
        1.6593306870078066
      ],
      "stability_index": 0.0,
      "force_balance": 0.29129574779741063
    },
    {
      "timestamp": 1751017373.1695566,
      "foot_forces": [
        [
          0.12625122869589656,
          0.5207612100716688,
          1.871404343621665
        ],
        [
          2.5785843285589527,
          4.981556757085437,
          19.507938766404248
        ],
        [
          0.7670683979379085,
          2.046764392484456,
          32.67867685206973
        ],
        [
          -0.30908665219353537,
          -0.7839058463552726,
          1.0741771574145231
        ]
      ],
      "contact_states": [
        false,
        true,
        true,
        false
      ],
      "total_force": 55.13219711951017,
      "center_of_pressure": [
        0.0,
        0.0
      ],
      "force_magnitude": [
        1.946608801990931,
        20.298391063759983,
        32.751695516529445,
        1.3652470472501776
      ],
      "stability_index": 0.044873694124095476,
      "force_balance": 0.7611062360327261
    },
    {
      "timestamp": 1751017373.1724634,
      "foot_forces": [
        [
          0.31954367097523484,
          -0.9738538141001312,
          1.9660742821756314
        ],
        [
          -2.146677922407486,
          -1.7209505567092442,
          10.046632455646165
        ],
        [
          0.8414415719996136,
          3.281370226112708,
          17.357159101407625
        ],
        [
          -0.6452027489183503,
          0.5466356213282071,
          0.16589244256763958
        ]
      ],
      "contact_states": [
        false,
        true,
        true,
        false
      ],
      "total_force": 29.535758281797058,
      "center_of_pressure": [
        0.0,
        0.0
      ],
      "force_magnitude": [
        2.217193607227417,
        10.416559922547965,
        17.684637020631374,
        0.8617525121621221
      ],
      "stability_index": 0.07152412419887211,
      "force_balance": 0.7524855608577027
    },
    {
      "timestamp": 1751017373.17536,
      "foot_forces": [
        [
          0.5254711134986669,
          0.32429638655032367,
          0.032271465579034375
        ],
        [
          0.7315043073768248,
          -0.5615731959922918,
          0.009834426260585394
        ],
        [
          -0.13189518632886066,
          0.1727052683000858,
          0.6302376937494867
        ],
        [
          0.24919786232799268,
          -0.9790299455674489,
          42.376718232390054
        ]
      ],
      "contact_states": [
        false,
        false,
        false,
        true
      ],
      "total_force": 43.04906181797916,
      "center_of_pressure": [
        0.0,
        0.0
      ],
      "force_magnitude": [
        0.6183279752216817,
        0.9222579477064539,
        0.6666505835128334,
        42.38875850218176
      ],
      "stability_index": 0.0,
      "force_balance": 0.016367721418585335
    },
    {
      "timestamp": 1751017373.1781642,
      "foot_forces": [
        [
          3.8044948004359433,
          -0.11897505254814966,
          13.355914106694522
        ],
        [
          1.3271493417940654,
          4.29852799978382,
          36.76329394307281
        ],
        [
          -4.168884486170907,
          0.6718944047864319,
          48.41459511225273
        ],
        [
          0.1814075948377596,
          -0.6168120070707825,
          1.8833528079837751
        ]
      ],
      "contact_states": [
        true,
        true,
        true,
        false
      ],
      "total_force": 100.41715597000383,
      "center_of_pressure": [
        0.0,
        0.0
      ],
      "force_magnitude": [
        13.88772038079233,
        37.03752758871904,
        48.598395650819434,
        1.990071246682359
      ],
      "stability_index": 0.2664356556284715,
      "force_balance": 0.8839710101662275
    },
    {
      "timestamp": 1751017373.1810575,
      "foot_forces": [
        [
          -0.7478957612202415,
          -0.7881718513151863,
          1.3937482128206744
        ],
        [
          -0.4592994763573557,
          0.9645396877353611,
          0.9877760223619216
        ],
        [
          -1.9059840146187468,
          -1.4866064898513462,
          34.303874225100785
        ],
        [
          0.2995347560495003,
          0.7935075532405322,
          0.9603855281006299
        ]
      ],
      "contact_states": [
        false,
        false,
        true,
        false
      ],
      "total_force": 37.64578398838401,
      "center_of_pressure": [
        0.0,
        0.0
      ],
      "force_magnitude": [
        1.7672286262953179,
        1.4549894461994934,
        34.38893078842644,
        1.2812945288716937
      ],
      "stability_index": 0.0,
      "force_balance": 0.11501117328254118
    },
    {
      "timestamp": 1751017373.1839225,
      "foot_forces": [
        [
          1.234712326011083,
          -1.783713759094494,
          42.31881901454279
        ],
        [
          -0.2539338536534119,
          -1.5253235150913316,
          29.08609782341067
        ],
        [
          -0.6863239303946296,
          0.7364421946901538,
          1.7471603099896769
        ],
        [
          2.5548318717281493,
          -3.6677344890048236,
          12.101675697907691
        ]
      ],
      "contact_states": [
        true,
        true,
        false,
        true
      ],
      "total_force": 85.25375284585084,
      "center_of_pressure": [
        0.0,
        0.0
      ],
      "force_magnitude": [
        42.37438603788868,
        29.127172551085984,
        2.0164217793794053,
        12.900775049273708
      ],
      "stability_index": 0.2696119239096958,
      "force_balance": 0.6455623088959923
    },
    {
      "timestamp": 1751017373.1867805,
      "foot_forces": [
        [
          0.5559237768984884,
          -0.8229938522235365,
          1.423481441398663
        ],
        [
          0.9821131680760877,
          -0.6474498989992461,
          0.6197385320142543
        ],
        [
          2.6280085180684747,
          -1.6704340657419103,
          10.354678799017393
        ],
        [
          -1.044914262321849,
          3.8199221306902693,
          31.18255523791444
        ]
      ],
      "contact_states": [
        false,
        false,
        true,
        true
      ],
      "total_force": 43.58045401034475,
      "center_of_pressure": [
        0.0,
        0.0
      ],
      "force_magnitude": [
        1.7357043355725166,
        1.3295914766144399,
        10.81277724591845,
        31.43303043083384
      ],
      "stability_index": 0.0,
      "force_balance": 0.31714631083347994
    },
    {
      "timestamp": 1751017373.1896303,
      "foot_forces": [
        [
          -4.3854245665073,
          4.373708524480369,
          20.090317519779497
        ],
        [
          0.7892604133817314,
          0.27377449430107204,
          1.7475944368999439
        ],
        [
          -0.6124713353306881,
          0.005085736089789128,
          0.5244802594106475
        ],
        [
          3.047420798256388,
          3.677355241837919,
          11.532596418419288
        ]
      ],
      "contact_states": [
        true,
        false,
        false,
        true
      ],
      "total_force": 33.894988634509374,
      "center_of_pressure": [
        0.0,
        0.0
      ],
      "force_magnitude": [
        21.023371112435726,
        1.9370004619888301,
        0.8063662591061157,
        12.482407429917348
      ],
      "stability_index": 0.06195065206106887,
      "force_balance": 0.7475225263050429
    },
    {
      "timestamp": 1751017373.1925988,
      "foot_forces": [
        [
          -0.33626948995170847,
          0.3330981757733251,
          0.5451045586156607
        ],
        [
          -0.22388383830704872,
          -0.470459886463078,
          1.6025667120876952
        ],
        [
          1.497089033766911,
          3.6405700459284827,
          17.0272970811649
        ],
        [
          0.09784988195955968,
          -0.8908970234850098,
          0.1713243072734174
        ]
      ],
      "contact_states": [
        false,
        false,
        true,
        false
      ],
      "total_force": 19.34629265914167,
      "center_of_pressure": [
        0.0,
        0.0
      ],
      "force_magnitude": [
        0.7219214253639197,
        1.6851339841441437,
        17.476380395396056,
        0.9124823966064585
      ],
      "stability_index": 0.0,
      "force_balance": 0.2027035545857629
    },
    {
      "timestamp": 1751017373.1955054,
      "foot_forces": [
        [
          -0.7668184056618772,
          0.627305444266905,
          0.3549243099411128
        ],
        [
          -2.638280371911388,
          -3.068604846228867,
          34.39911709969214
        ],
        [
          0.141789556004702,
          -1.4769576500153825,
          34.241053277407616
        ],
        [
          0.06210798877447932,
          3.563667700595383,
          28.89553084228271
        ]
      ],
      "contact_states": [
        false,
        true,
        true,
        true
      ],
      "total_force": 97.89062552932359,
      "center_of_pressure": [
        0.0,
        0.0
      ],
      "force_magnitude": [
        1.0523753386771744,
        34.63634097680418,
        34.273185403816754,
        29.11452021826648
      ],
      "stability_index": 0.4238674126481343,
      "force_balance": 0.7084439252684913
    },
    {
      "timestamp": 1751017373.1984525,
      "foot_forces": [
        [
          -0.7847101529130251,
          0.8714740052296821,
          1.8659367574503414
        ],
        [
          -2.231821285758089,
          -2.405203787959247,
          35.02376613211571
        ],
        [
          3.43709771282988,
          -0.7537223226376879,
          12.199341676886695
        ],
        [
          -0.8221407144095019,
          0.15897378067205414,
          0.9984021458498207
        ]
      ],
      "contact_states": [
        false,
        true,
        true,
        false
      ],
      "total_force": 50.08744671230257,
      "center_of_pressure": [
        0.0,
        0.0
      ],
      "force_magnitude": [
        2.203850482378544,
        35.1771264544208,
        12.696679698905829,
        1.3030713188726315
      ],
      "stability_index": 0.0,
      "force_balance": 0.5443084853909546
    },
    {
      "timestamp": 1751017373.2013538,
      "foot_forces": [
        [
          -3.106015655499912,
          0.31486144511862335,
          34.79386643108036
        ],
        [
          -0.7968433206179171,
          -0.9233568298077126,
          1.587722105378387
        ],
        [
          -0.8596015547635325,
          -0.5633976717455749,
          30.33801077911384
        ],
        [
          -0.9234711004727121,
          -0.7104347445720698,
          1.7324106505388854
        ]
      ],
      "contact_states": [
        true,
        false,
        true,
        false
      ],
      "total_force": 68.45200996611148,
      "center_of_pressure": [
        0.0,
        0.0
      ],
      "force_magnitude": [
        34.933645847602186,
        2.002101045570157,
        30.35541516440037,
        2.087765087792213
      ],
      "stability_index": 0.0923208430090825,
      "force_balance": 0.5170126370736343
    },
    {
      "timestamp": 1751017373.204276,
      "foot_forces": [
        [
          3.436483426930705,
          2.885014233579083,
          20.64694657233837
        ],
        [
          -0.7321033001097956,
          0.72024139622311,
          0.34404238661670217
        ],
        [
          0.7459088966448149,
          0.8363629333114695,
          0.2952560614587245
        ],
        [
          -0.6670407886405645,
          1.5085926700615007,
          41.34044345729429
        ]
      ],
      "contact_states": [
        true,
        false,
        false,
        true
      ],
      "total_force": 62.626688477708086,
      "center_of_pressure": [
        0.0,
        0.0
      ],
      "force_magnitude": [
        21.1288695445951,
        1.0830919049895926,
        1.1589043015449416,
        41.373337555769176
      ],
      "stability_index": 0.0,
      "force_balance": 0.6695738288585744
    },
    {
      "timestamp": 1751017373.2074103,
      "foot_forces": [
        [
          -0.6536535664828125,
          -0.2626994406428331,
          1.7126789879435143
        ],
        [
          0.8010714045088236,
          0.10445426954271597,
          0.7044988470300757
        ],
        [
          -0.7980707791295316,
          -0.3765650520641106,
          13.39434803151935
        ],
        [
          1.8758982096389385,
          -0.5875951722389097,
          31.993170416295754
        ]
      ],
      "contact_states": [
        false,
        false,
        true,
        true
      ],
      "total_force": 47.8046962827887,
      "center_of_pressure": [
        0.0,
        0.0
      ],
      "force_magnitude": [
        1.8519026153750575,
        1.0718883873865541,
        13.423385467027412,
        32.05350550978016
      ],
      "stability_index": 0.0,
      "force_balance": 0.36657914843286565
    },
    {
      "timestamp": 1751017373.2103724,
      "foot_forces": [
        [
          -2.4072247217192375,
          1.287235643876504,
          16.735670532602512
        ],
        [
          -4.908317699286245,
          -0.5439598494879139,
          29.874426082974797
        ],
        [
          0.020559557864886724,
          0.18507379451167605,
          1.9550133670630454
        ],
        [
          -0.018431957102101437,
          0.4552900194441205,
          0.5292439693313264
        ]
      ],
      "contact_states": [
        true,
        true,
        false,
        false
      ],
      "total_force": 49.09435395197168,
      "center_of_pressure": [
        0.0,
        0.0
      ],
      "force_magnitude": [
        16.95683858033515,
        30.279841623464716,
        1.963861571045611,
        0.6983751985298585
      ],
      "stability_index": 0.023902765223142275,
      "force_balance": 0.43131112911222086
    },
    {
      "timestamp": 1751017373.2133167,
      "foot_forces": [
        [
          4.078852494377616,
          1.2579129992236595,
          18.770736712486435
        ],
        [
          0.990846850092872,
          -0.4558683123689238,
          0.4764280138861521
        ],
        [
          -0.12269846210482349,
          1.1978284699792923,
          37.720223524461716
        ],
        [
          -0.2154096741252549,
          0.844486167361195,
          0.7253771697344642
        ]
      ],
      "contact_states": [
        true,
        false,
        true,
        false
      ],
      "total_force": 57.69276542056877,
      "center_of_pressure": [
        0.0,
        0.0
      ],
      "force_magnitude": [
        19.249933493755048,
        1.190200424708612,
        37.73943707438481,
        1.13390045989193
      ],
      "stability_index": 0.0,
      "force_balance": 0.35444599961406403
    },
    {
      "timestamp": 1751017373.216245,
      "foot_forces": [
        [
          -0.008276573622712391,
          -0.8187478189222261,
          0.26581314538934997
        ],
        [
          0.667974546703902,
          -0.8749579616622898,
          0.043013689676128175
        ],
        [
          0.24169633991788775,
          -0.7130861424084165,
          0.7996835599784773
        ],
        [
          0.7960763189056133,
          -1.2176009980297398,
          45.043845913673806
        ]
      ],
      "contact_states": [
        false,
        false,
        false,
        true
      ],
      "total_force": 46.15235630871776,
      "center_of_pressure": [
        0.0,
        0.0
      ],
      "force_magnitude": [
        0.8608560396039597,
        1.1016313390695032,
        1.0983636753482293,
        45.06733123217653
      ],
      "stability_index": 0.0,
      "force_balance": 0.029777971274972836
    },
    {
      "timestamp": 1751017373.2192194,
      "foot_forces": [
        [
          -2.8162393320355337,
          2.0030202251256846,
          25.915508994357225
        ],
        [
          4.55110452614467,
          -4.5471999409937585,
          37.29740171105028
        ],
        [
          0.03429219635762326,
          -0.8624026510458191,
          0.6035217605039747
        ],
        [
          -0.8768937849947109,
          -0.7382835393671208,
          40.64312588134087
        ]
      ],
      "contact_states": [
        true,
        true,
        false,
        true
      ],
      "total_force": 104.45955834725234,
      "center_of_pressure": [
        0.0,
        0.0
      ],
      "force_magnitude": [
        26.14492112120778,
        37.84819353822219,
        1.053163236475573,
        40.65928782825866
      ],
      "stability_index": 0.3984971109966773,
      "force_balance": 0.6487264494402155
    },
    {
      "timestamp": 1751017373.2222197,
      "foot_forces": [
        [
          0.4386475581217606,
          -0.4190177253126033,
          1.1255291832252723
        ],
        [
          4.400719399563341,
          1.928733054213482,
          35.23657681521661
        ],
        [
          -2.1505556014844505,
          -2.432681328431473,
          41.060779612294425
        ],
        [
          -3.6492784771033158,
          -2.4963819555607047,
          33.244689211587925
        ]
      ],
      "contact_states": [
        false,
        true,
        true,
        true
      ],
      "total_force": 110.66757482232423,
      "center_of_pressure": [
        0.0,
        0.0
      ],
      "force_magnitude": [
        1.278594336239638,
        35.56265861943915,
        41.188960295329,
        33.53741965397113
      ],
      "stability_index": 0.4364933427337121,
      "force_balance": 0.7097690079507961
    },
    {
      "timestamp": 1751017373.2252715,
      "foot_forces": [
        [
          -0.12625818362072794,
          0.7995039037491158,
          1.67383667468477
        ],
        [
          4.0931731467581685,
          -4.906850518778029,
          34.234554375737
        ],
        [
          -0.3490046167702463,
          0.6232804841947417,
          1.0325130535482132
        ],
        [
          -0.7145380218860999,
          -0.10345731588832474,
          0.4935414504551776
        ]
      ],
      "contact_states": [
        false,
        true,
        false,
        false
      ],
      "total_force": 37.43444555442516,
      "center_of_pressure": [
        0.0,
        0.0
      ],
      "force_magnitude": [
        1.8592678221711496,
        34.8257944881128,
        1.2555341453948727,
        0.8745576963523434
      ],
      "stability_index": 0.0,
      "force_balance": 0.11306175821631903
    },
    {
      "timestamp": 1751017373.2282085,
      "foot_forces": [
        [
          0.45232822149355245,
          0.7284210431049996,
          0.9803134230336759
        ],
        [
          0.07466350406278055,
          0.7386109854970369,
          0.8574366644682883
        ],
        [
          0.9477955588739109,
          0.8104791208795803,
          0.6115917780605007
        ],
        [
          -2.543249000209636,
          -4.867066596104727,
          21.02172900897953
        ]
      ],
      "contact_states": [
        false,
        false,
        false,
        true
      ],
      "total_force": 23.471070874541994,
      "center_of_pressure": [
        0.0,
        0.0
      ],
      "force_magnitude": [
        1.302387209464873,
        1.1341598036918523,
        1.388969880808814,
        21.727161417335612
      ],
      "stability_index": 0.0,
      "force_balance": 0.1461226591205998
    },
    {
      "timestamp": 1751017373.2311196,
      "foot_forces": [
        [
          0.49478769007179757,
          -3.053334628003568,
          20.886572090642023
        ],
        [
          -0.4617933167106423,
          0.12523773636611302,
          0.6658857460388152
        ],
        [
          -0.9085625369889214,
          0.9724437771393868,
          1.8083569283419696
        ],
        [
          -0.8751021832562849,
          0.3394425216132859,
          29.971559672738934
        ]
      ],
      "contact_states": [
        true,
        false,
        false,
        true
      ],
      "total_force": 53.33237443776174,
      "center_of_pressure": [
        0.0,
        0.0
      ],
      "force_magnitude": [
        21.114368588863805,
        0.8199642582127548,
        2.245281176957413,
        29.986253755232077
      ],
      "stability_index": 0.060856051222722196,
      "force_balance": 0.8296534201247877
    },
    {
      "timestamp": 1751017373.2340524,
      "foot_forces": [
        [
          0.6302281603856705,
          -0.9985653365150795,
          0.6723718945097812
        ],
        [
          -1.2985735488647676,
          1.0469851292552406,
          26.298239903663504
        ],
        [
          4.337955327997594,
          -4.828983470226426,
          31.556330272052225
        ],
        [
          -2.120839366955246,
          4.852324069507908,
          44.19442640389378
        ]
      ],
      "contact_states": [
        false,
        true,
        true,
        true
      ],
      "total_force": 102.72136847411929,
      "center_of_pressure": [
        0.0,
        0.0
      ],
      "force_magnitude": [
        1.3588245765952471,
        26.351089031638374,
        32.21705942543892,
        44.51056429281858
      ],
      "stability_index": 0.3833528163854393,
      "force_balance": 0.5763096310350517
    },
    {
      "timestamp": 1751017373.236995,
      "foot_forces": [
        [
          2.863626708116863,
          2.549512685588412,
          45.03599738407956
        ],
        [
          0.2832263706213183,
          0.5778264585193456,
          1.7711928224262432
        ],
        [
          2.7446751135874203,
          1.8659225827482642,
          32.934467770241
        ],
        [
          -4.452127512120837,
          2.605760045667761,
          10.66386599888071
        ]
      ],
      "contact_states": [
        true,
        false,
        true,
        true
      ],
      "total_force": 90.40552397562752,
      "center_of_pressure": [
        0.0,
        0.0
      ],
      "force_magnitude": [
        45.198909646541665,
        1.8844693171804563,
        33.10127000392884,
        11.846073731066584
      ],
      "stability_index": 0.2379801545896717,
      "force_balance": 0.6198005401255652
    },
    {
      "timestamp": 1751017373.2398698,
      "foot_forces": [
        [
          4.35558685123423,
          0.13097128475116993,
          16.762262110307873
        ],
        [
          -0.11523090892844534,
          -0.7920027100295113,
          0.8579406174744699
        ],
        [
          -0.932233684771115,
          -0.040454834172639176,
          0.408341180724634
        ],
        [
          4.21435761266963,
          -3.173449733067617,
          12.365939677742372
        ]
      ],
      "contact_states": [
        true,
        false,
        false,
        true
      ],
      "total_force": 30.394483586249347,
      "center_of_pressure": [
        0.0,
        0.0
      ],
      "force_magnitude": [
        17.319403031015153,
        1.1732896309859049,
        1.0185473756804122,
        13.444257413830504
      ],
      "stability_index": 0.06054442518489911,
      "force_balance": 0.8553578836077207
    },
    {
      "timestamp": 1751017373.2427423,
      "foot_forces": [
        [
          -4.039064300621709,
          0.5111039129709063,
          19.69693753232933
        ],
        [
          -0.14484935088700723,
          -0.2002934557240703,
          15.543387261997928
        ],
        [
          -1.2052244112055845,
          1.2715857622317115,
          20.958478413065066
        ],
        [
          -0.983235968427481,
          0.21585989524537208,
          1.1002068086554444
        ]
      ],
      "contact_states": [
        true,
        true,
        true,
        false
      ],
      "total_force": 57.29901001604777,
      "center_of_pressure": [
        0.0,
        0.0
      ],
      "force_magnitude": [
        20.11329450355895,
        15.545352565294161,
        21.03157896171827,
        1.4912422626108297
      ],
      "stability_index": 0.44894864881641827,
      "force_balance": 0.6754441181712304
    },
    {
      "timestamp": 1751017373.2455976,
      "foot_forces": [
        [
          -3.0857100933164796,
          4.08218830717343,
          11.728307767139565
        ],
        [
          -0.6322457304507121,
          -0.7621786571412874,
          1.6701285991501884
        ],
        [
          -1.8059980356878524,
          4.251733258403988,
          30.643987852297307
        ],
        [
          4.723556007196173,
          -3.863900853014157,
          41.83080854031234
        ]
      ],
      "contact_states": [
        true,
        false,
        true,
        true
      ],
      "total_force": 85.8732327588994,
      "center_of_pressure": [
        0.0,
        0.0
      ],
      "force_magnitude": [
        12.796056862798201,
        1.9416437641272462,
        30.990205809211268,
        42.27361179614666
      ],
      "stability_index": 0.26880071442778986,
      "force_balance": 0.6494542035270807
    },
    {
      "timestamp": 1751017373.2484462,
      "foot_forces": [
        [
          -0.27220578875458035,
          3.034752514536173,
          41.729879483176
        ],
        [
          0.5611897944737116,
          0.7553841082753079,
          1.7758039480955712
        ],
        [
          0.9270261754309421,
          -0.7795956016243837,
          0.0442998824495382
        ],
        [
          -4.952155381951187,
          -3.8473328435642697,
          44.104687431934316
        ]
      ],
      "contact_states": [
        true,
        false,
        false,
        true
      ],
      "total_force": 87.65467074565542,
      "center_of_pressure": [
        0.0,
        0.0
      ],
      "force_magnitude": [
        41.840968684966036,
        2.009731026413273,
        1.2120681959325752,
        44.548280173366756
      ],
      "stability_index": 0.04035674295448188,
      "force_balance": 0.9729072286900806
    },
    {
      "timestamp": 1751017373.25131,
      "foot_forces": [
        [
          3.8972670888245258,
          -1.2704985790315728,
          24.732548338305286
        ],
        [
          -4.626214338748477,
          -4.426896642493295,
          14.688906795923078
        ],
        [
          -2.5315557624706297,
          0.756573155670413,
          44.49696267823969
        ],
        [
          -0.9422496723314624,
          0.9169371062743192,
          1.6743982454355302
        ]
      ],
      "contact_states": [
        true,
        true,
        true,
        false
      ],
      "total_force": 85.59281605790358,
      "center_of_pressure": [
        0.0,
        0.0
      ],
      "force_magnitude": [
        25.069938266927654,
        16.023833993482196,
        44.57533920349945,
        2.128900558078994
      ],
      "stability_index": 0.26899472409121594,
      "force_balance": 0.6517458210260141
    },
    {
      "timestamp": 1751017373.2541506,
      "foot_forces": [
        [
          -0.1802701504018427,
          0.11131828220599727,
          1.44688881204808
        ],
        [
          0.10180897487095009,
          -0.47676616724385257,
          1.3588589851954525
        ],
        [
          0.6315678574756385,
          0.26139877570237235,
          1.2299428534816956
        ],
        [
          0.026909436584076296,
          -2.436458061094262,
          39.96204033653089
        ]
      ],
      "contact_states": [
        false,
        false,
        false,
        true
      ],
      "total_force": 43.99773098725612,
      "center_of_pressure": [
        0.0,
        0.0
      ],
      "force_magnitude": [
        1.4623188166433136,
        1.4436650536876903,
        1.4071128957428267,
        40.0362550678728
      ],
      "stability_index": 0.0,
      "force_balance": 0.12461050467264617
    },
    {
      "timestamp": 1751017373.2570782,
      "foot_forces": [
        [
          0.016360996536378236,
          -0.6128014178705739,
          0.8070943265118553
        ],
        [
          4.973375859263161,
          -2.2890179411383826,
          48.717878447197116
        ],
        [
          0.743223295404386,
          0.1966744024140341,
          1.2441801518772042
        ],
        [
          2.380267379464102,
          -2.5619198743733476,
          29.68609623143888
        ]
      ],
      "contact_states": [
        false,
        true,
        false,
        true
      ],
      "total_force": 80.45524915702507,
      "center_of_pressure": [
        0.0,
        0.0
      ],
      "force_magnitude": [
        1.0135060492367445,
        49.024542333082806,
        1.4625477557064097,
        29.891360218342353
      ],
      "stability_index": 0.0,
      "force_balance": 0.4099365946569233
    },
    {
      "timestamp": 1751017373.259966,
      "foot_forces": [
        [
          4.67865948713831,
          -3.9769300924458117,
          28.3324062263474
        ],
        [
          -0.8768490680012411,
          4.30678002916069,
          24.441576240677414
        ],
        [
          -0.6422988515877648,
          0.7553407837720285,
          0.9022588053461034
        ],
        [
          0.9953540761246198,
          0.8158483779464849,
          1.3469954580718768
        ]
      ],
      "contact_states": [
        true,
        true,
        false,
        false
      ],
      "total_force": 55.02323673044278,
      "center_of_pressure": [
        0.0,
        0.0
      ],
      "force_magnitude": [
        28.990189204825125,
        24.833603597474102,
        1.3405813911153928,
        1.8629908955016585
      ],
      "stability_index": 0.07625639104134396,
      "force_balance": 0.5095633704633507
    },
    {
      "timestamp": 1751017373.26284,
      "foot_forces": [
        [
          3.203189430493792,
          2.199612657251323,
          36.73089759931474
        ],
        [
          -0.38448234961637806,
          0.42338064785468754,
          0.09113839384419142
        ],
        [
          -0.889652072239792,
          0.5208402642990992,
          1.7651364745004603
        ],
        [
          0.04538194002806084,
          -0.30261756907715176,
          1.6572955192769938
        ]
      ],
      "contact_states": [
        true,
        false,
        false,
        false
      ],
      "total_force": 40.24446798693638,
      "center_of_pressure": [
        0.0,
        0.0
      ],
      "force_magnitude": [
        36.93585733160816,
        0.5791235248000937,
        2.044128705382229,
        1.6853086814617897
      ],
      "stability_index": 0.0,
      "force_balance": 0.12848637752093356
    },
    {
      "timestamp": 1751017373.2657657,
      "foot_forces": [
        [
          1.4128576458137285,
          4.842749004963755,
          24.528053386274394
        ],
        [
          3.722592923720585,
          -2.695042390485395,
          29.31501922703599
        ],
        [
          -0.8238847992795664,
          -0.5689335869496785,
          0.5322610349793795
        ],
        [
          0.6227512293161093,
          -0.018307381583660742,
          0.8255844236915526
        ]
      ],
      "contact_states": [
        true,
        true,
        false,
        false
      ],
      "total_force": 55.20091807198131,
      "center_of_pressure": [
        0.0,
        0.0
      ],
      "force_magnitude": [
        25.041441403648044,
        29.67307371749239,
        1.1339194848844776,
        1.0342842425935377
      ],
      "stability_index": 0.04129036868575897,
      "force_balance": 0.4785818932481476
    },
    {
      "timestamp": 1751017373.2686846,
      "foot_forces": [
        [
          0.41908332712652796,
          0.38100782135803857,
          0.8472760105274815
        ],
        [
          0.92903690598954,
          -0.9592066179244199,
          1.3206243687126595
        ],
        [
          -0.7846743090823998,
          -0.64422338743117,
          1.3315003062955686
        ],
        [
          0.5759258630994228,
          -0.9901191010070947,
          1.0913074009731087
        ]
      ],
      "contact_states": [
        false,
        false,
        false,
        false
      ],
      "total_force": 4.590708086508818,
      "center_of_pressure": [
        0.0,
        0.0
      ],
      "force_magnitude": [
        1.0191537828153336,
        1.8780936163563124,
        1.6744045538376997,
        1.5820803637567196
      ],
      "stability_index": 0.827310404355558,
      "force_balance": 0.9468423202157447
    },
    {
      "timestamp": 1751017373.2716026,
      "foot_forces": [
        [
          0.6742740150871047,
          -0.07544716136360008,
          0.009218935496509095
        ],
        [
          0.6403814441488636,
          0.672750022345364,
          0.4503764751154238
        ],
        [
          -3.315131845224224,
          4.635069228309911,
          27.670733437853258
        ],
        [
          3.1262690875197734,
          -4.19823422144443,
          27.024032062471296
        ]
      ],
      "contact_states": [
        false,
        false,
        true,
        true
      ],
      "total_force": 55.15436091093649,
      "center_of_pressure": [
        0.0,
        0.0
      ],
      "force_magnitude": [
        0.6785445529596409,
        1.0322402607500183,
        28.251432793597843,
        27.526297206474492
      ],
      "stability_index": 0.016460933561758373,
      "force_balance": 0.5064695426950303
    },
    {
      "timestamp": 1751017373.2745304,
      "foot_forces": [
        [
          -2.258560125647967,
          -3.2492420131572697,
          23.00774442075541
        ],
        [
          3.1759897198188742,
          -2.047521622115016,
          30.05706562812177
        ],
        [
          -1.521669215346023,
          4.385656556346525,
          30.400044353941414
        ],
        [
          0.7585573796218519,
          0.18918304563743726,
          0.6618687314754783
        ]
      ],
      "contact_states": [
        true,
        true,
        true,
        false
      ],
      "total_force": 84.12672313429407,
      "center_of_pressure": [
        0.0,
        0.0
      ],
      "force_magnitude": [
        23.345555697649072,
        30.29367012540149,
        30.752433356610375,
        1.0243386845376805
      ],
      "stability_index": 0.423491043042302,
      "force_balance": 0.7343783894493486
    },
    {
      "timestamp": 1751017373.2774794,
      "foot_forces": [
        [
          -0.7461792028097132,
          -0.5362345858745661,
          0.14961356735710507
        ],
        [
          -4.9402264003845175,
          -4.991286474746341,
          48.568808361050515
        ],
        [
          0.7283478830190526,
          -0.23605368490590162,
          1.1067381530715596
        ],
        [
          0.47901201214062716,
          -4.6874122260915305,
          36.03551815212095
        ]
      ],
      "contact_states": [
        false,
        true,
        false,
        true
      ],
      "total_force": 85.86067823360014,
      "center_of_pressure": [
        0.0,
        0.0
      ],
      "force_magnitude": [
        0.9309753774032509,
        49.073902669061205,
        1.3457642142367425,
        36.34225989639233
      ],
      "stability_index": 0.007432082967011477,
      "force_balance": 0.4472199476592829
    },
    {
      "timestamp": 1751017373.2803755,
      "foot_forces": [
        [
          4.337263414227477,
          4.121862210073649,
          27.951761709842593
        ],
        [
          2.924004697807625,
          -2.543535811452302,
          27.481514662643583
        ],
        [
          0.12154241471791494,
          -0.7418043838885406,
          13.490905444120571
        ],
        [
          0.08784952716022154,
          2.828604109823198,
          12.384387852381735
        ]
      ],
      "contact_states": [
        true,
        true,
        true,
        true
      ],
      "total_force": 81.30856966898848,
      "center_of_pressure": [
        0.0,
        0.0
      ],
      "force_magnitude": [
        28.58500629153424,
        27.753432689489703,
        13.511830964185934,
        12.703612920258207
      ],
      "stability_index": 0.635870522131798,
      "force_balance": 0.8085395682049694
    },
    {
      "timestamp": 1751017373.2833316,
      "foot_forces": [
        [
          0.7920771052015954,
          0.697980896931206,
          0.5424827798805469
        ],
        [
          0.9029085651719013,
          2.826700166472502,
          23.599570997297246
        ],
        [
          0.5914351361685639,
          -0.15352208479265528,
          1.2854624036524203
        ],
        [
          -1.6698253441374513,
          3.862044777293205,
          42.915215578254475
        ]
      ],
      "contact_states": [
        false,
        true,
        false,
        true
      ],
      "total_force": 68.34273175908469,
      "center_of_pressure": [
        0.0,
        0.0
      ],
      "force_magnitude": [
        1.1869503104731705,
        23.78539949138273,
        1.4232983320504766,
        43.12098601226318
      ],
      "stability_index": 0.0,
      "force_balance": 0.3799965013435186
    },
    {
      "timestamp": 1751017373.2863302,
      "foot_forces": [
        [
          0.4129438689121461,
          1.9283404544189873,
          37.67928358673205
        ],
        [
          -0.9959634819694883,
          0.040615575127002534,
          1.8021768955729178
        ],
        [
          -1.1294193237629955,
          4.674929911236665,
          13.603850995630967
        ],
        [
          -3.4319801889974944,
          -3.856484391374253,
          11.495579733938559
        ]
      ],
      "contact_states": [
        true,
        false,
        true,
        true
      ],
      "total_force": 64.58089121187449,
      "center_of_pressure": [
        0.0,
        0.0
      ],
      "force_magnitude": [
        37.73085516068243,
        2.059474312851832,
        14.428975001544433,
        12.601559954939049
      ],
      "stability_index": 0.18209436243304333,
      "force_balance": 0.5945595769669544
    },
    {
      "timestamp": 1751017373.28935,
      "foot_forces": [
        [
          -0.13329228732704235,
          0.5250109127764293,
          1.7623777544618076
        ],
        [
          0.6649004399486333,
          -0.03712108543594739,
          0.6956912982930714
        ],
        [
          3.550969981955843,
          -2.9628387232583164,
          48.94939907898985
        ],
        [
          1.6131850446810256,
          -3.289158640120763,
          35.771650374990934
        ]
      ],
      "contact_states": [
        false,
        false,
        true,
        true
      ],
      "total_force": 87.17911850673566,
      "center_of_pressure": [
        0.0,
        0.0
      ],
      "force_magnitude": [
        1.8437403943660446,
        0.9630456648303488,
        49.16738218887602,
        35.95875277451726
      ],
      "stability_index": 0.03232551951069995,
      "force_balance": 0.4464992465257769
    },
    {
      "timestamp": 1751017373.2923307,
      "foot_forces": [
        [
          -0.42521302830759855,
          -0.8034872355401104,
          0.6201510997139825
        ],
        [
          0.9607276018440063,
          0.4008396635493652,
          1.5411301560551083
        ],
        [
          -0.051385792785080264,
          0.3136160215441457,
          0.044450071488726595
        ],
        [
          0.08091527206010851,
          -0.7915339483074868,
          1.531644782054136
        ]
      ],
      "contact_states": [
        false,
        false,
        false,
        false
      ],
      "total_force": 3.7373761093119535,
      "center_of_pressure": [
        0.0,
        0.0
      ],
      "force_magnitude": [
        1.10044774687164,
        1.8597720609584785,
        0.32089144196235925,
        1.7259805940303796
      ],
      "stability_index": 0.3198131409074678,
      "force_balance": 0.5995372045009624
    },
    {
      "timestamp": 1751017373.2952497,
      "foot_forces": [
        [
          4.665529952675428,
          -4.3878063110846055,
          42.97856546347829
        ],
        [
          -0.9014040614706997,
          -0.5264731332603012,
          0.9409928872158453
        ],
        [
          -0.4555383597302394,
          -0.8828680417228962,
          1.8111779703176762
        ],
        [
          -0.4821698258953695,
          -0.8128643754090781,
          0.08831255681686256
        ]
      ],
      "contact_states": [
        true,
        false,
        false,
        false
      ],
      "total_force": 45.81904887782867,
      "center_of_pressure": [
        0.0,
        0.0
      ],
      "force_magnitude": [
        43.453159876600395,
        1.4054077187320428,
        2.0657533290413443,
        0.9492288140931527
      ],
      "stability_index": 0.0,
      "force_balance": 0.06392092465682886
    },
    {
      "timestamp": 1751017373.2982073,
      "foot_forces": [
        [
          0.9033544213742954,
          -0.5235588232025137,
          0.2931015300856492
        ],
        [
          0.4175971720223508,
          1.0398433050141627,
          27.260946973897134
        ],
        [
          1.2202432943661297,
          0.7998220618635372,
          40.173946740411544
        ],
        [
          0.11712207817567322,
          -0.8419086604603627,
          1.113574926614666
        ]
      ],
      "contact_states": [
        false,
        true,
        true,
        false
      ],
      "total_force": 68.84157017100898,
      "center_of_pressure": [
        0.0,
        0.0
      ],
      "force_magnitude": [
        1.0844683300623574,
        27.283967662543056,
        40.20043166098484,
        1.4009200158964141
      ],
      "stability_index": 0.004716472606105859,
      "force_balance": 0.8124243863927378
    },
    {
      "timestamp": 1751017373.3012846,
      "foot_forces": [
        [
          0.4053720394577245,
          0.663735433159784,
          0.5834643982029453
        ],
        [
          -0.8237698246028655,
          -0.489249389376611,
          1.0022509946337408
        ],
        [
          -0.07104945336619739,
          -0.0011402603976511383,
          0.48518503433881666
        ],
        [
          -0.9440415876650308,
          0.9668001329830882,
          0.10456576526620043
        ]
      ],
      "contact_states": [
        false,
        false,
        false,
        false
      ],
      "total_force": 2.1754661924417036,
      "center_of_pressure": [
        0.0,
        0.0
      ],
      "force_magnitude": [
        0.9722663830330894,
        1.386531191562579,
        0.49036093091086347,
        1.3553047685457817
      ],
      "stability_index": 0.4126893645926899,
      "force_balance": 0.7623194687688625
    },
    {
      "timestamp": 1751017373.3042984,
      "foot_forces": [
        [
          -3.679032224832548,
          -1.3720903592032743,
          36.99005169708078
        ],
        [
          -1.3268612880303623,
          -2.8645050837752994,
          23.207284090467617
        ],
        [
          0.8369651831738278,
          -0.5680813536166387,
          1.3179436075421889
        ],
        [
          -2.1513559912748716,
          -3.268288569803679,
          34.52648347321911
        ]
      ],
      "contact_states": [
        true,
        true,
        false,
        true
      ],
      "total_force": 96.04176286830969,
      "center_of_pressure": [
        0.0,
        0.0
      ],
      "force_magnitude": [
        37.19787406046055,
        23.421015885488817,
        1.661385715249,
        34.74749061159922
      ],
      "stability_index": 0.412972634593624,
      "force_balance": 0.7720851863898042
    },
    {
      "timestamp": 1751017373.3073025,
      "foot_forces": [
        [
          0.5657826649667312,
          -0.6501731143169049,
          0.6146914384582141
        ],
        [
          3.577423729303902,
          3.0776722602007354,
          12.111989276264028
        ],
        [
          0.6740056679461246,
          0.44715663713143194,
          1.925103581862014
        ],
        [
          1.2632156983445668,
          -3.5647521133669704,
          12.613308687124537
        ]
      ],
      "contact_states": [
        false,
        true,
        false,
        true
      ],
      "total_force": 27.265092983708794,
      "center_of_pressure": [
        0.0,
        0.0
      ],
      "force_magnitude": [
        1.0586220605443795,
        12.998858077097795,
        2.088122721358146,
        13.168095062194446
      ],
      "stability_index": 0.1830559538450699,
      "force_balance": 0.559927514062188
    },
    {
      "timestamp": 1751017373.310206,
      "foot_forces": [
        [
          4.477193180713449,
          -3.658836732743136,
          14.776236327402806
        ],
        [
          -0.7171289277059667,
          0.4805430677997413,
          0.4106689982683982
        ],
        [
          2.7279304563400846,
          -0.5829425532446928,
          38.17168573887601
        ],
        [
          2.8484398573558147,
          -2.8271461992105653,
          23.06676172474022
        ]
      ],
      "contact_states": [
        true,
        false,
        true,
        true
      ],
      "total_force": 76.42535278928743,
      "center_of_pressure": [
        0.0,
        0.0
      ],
      "force_magnitude": [
        15.867246295988345,
        0.9559521772044175,
        38.27347670048439,
        23.413283873020127
      ],
      "stability_index": 0.2845427444677867,
      "force_balance": 0.5059098144470642
    },
    {
      "timestamp": 1751017373.3132904,
      "foot_forces": [
        [
          -2.351072483195299,
          4.2978018879545985,
          20.145751448973325
        ],
        [
          -4.484700806387039,
          -2.651473524947318,
          22.24333214169873
        ],
        [
          3.0361866359682725,
          -0.4585630828178946,
          17.310060946733582
        ],
        [
          0.06448610961002377,
          -0.514338567030749,
          0.6621325743134252
        ]
      ],
      "contact_states": [
        true,
        true,
        true,
        false
      ],
      "total_force": 60.36127711171907,
      "center_of_pressure": [
        0.0,
        0.0
      ],
      "force_magnitude": [
        20.732822874204928,
        22.845320701234048,
        17.580299183147794,
        0.8409055629705418
      ],
      "stability_index": 0.435923692485238,
      "force_balance": 0.6772165897252499
    },
    {
      "timestamp": 1751017373.316183,
      "foot_forces": [
        [
          0.29924601260188766,
          4.862835775897704,
          21.180360500890032
        ],
        [
          0.1684719189304369,
          0.77815590210081,
          0.5273775522800357
        ],
        [
          0.5772867892474189,
          0.04227934302961045,
          1.7147354769742926
        ],
        [
          -4.495990388993149,
          3.1866578873140554,
          39.64571697279328
        ]
      ],
      "contact_states": [
        true,
        false,
        false,
        true
      ],
      "total_force": 63.06819050293764,
      "center_of_pressure": [
        0.0,
        0.0
      ],
      "force_magnitude": [
        21.733485475345905,
        0.9550060094529829,
        1.8097970427318264,
        40.02688586881983
      ],
      "stability_index": 0.0,
      "force_balance": 0.707216009772103
    },
    {
      "timestamp": 1751017373.3190532,
      "foot_forces": [
        [
          -0.5030105550435984,
          -0.003545958545867034,
          0.10004197540281656
        ],
        [
          0.8655499013689851,
          -0.5948007025193522,
          0.39543536583032823
        ],
        [
          2.3985181855289914,
          -4.0368340161244864,
          20.67388081303416
        ],
        [
          0.4246825007168744,
          0.450327254991729,
          1.0534834976659675
        ]
      ],
      "contact_states": [
        false,
        false,
        true,
        false
      ],
      "total_force": 22.222841651933273,
      "center_of_pressure": [
        0.0,
        0.0
      ],
      "force_magnitude": [
        0.5128748279549072,
        1.1222003546723465,
        21.200430802971788,
        1.2218745200952692
      ],
      "stability_index": 0.0,
      "force_balance": 0.08749539033682885
    },
    {
      "timestamp": 1751017373.3218987,
      "foot_forces": [
        [
          0.33431707728293825,
          -0.5393394371383999,
          0.6452336306647946
        ],
        [
          -0.9230532543362309,
          -0.7636189713397716,
          1.7682615160572497
        ],
        [
          -2.3920747952251356,
          -2.2520716548256203,
          10.953428339833312
        ],
        [
          -0.3818656182612796,
          0.8035957328084589,
          0.6220806280920346
        ]
      ],
      "contact_states": [
        false,
        false,
        true,
        false
      ],
      "total_force": 13.989004114647392,
      "center_of_pressure": [
        0.0,
        0.0
      ],
      "force_magnitude": [
        0.9049758973346443,
        2.1358581490585467,
        11.4355341353294,
        1.0856204493493173
      ],
      "stability_index": 0.0,
      "force_balance": 0.34340094916702474
    },
    {
      "timestamp": 1751017373.3247466,
      "foot_forces": [
        [
          0.6654597681698298,
          -0.11469334922807994,
          1.9002786776742802
        ],
        [
          0.46828363701695985,
          -0.47754089036149483,
          0.9975549389095051
        ],
        [
          0.3812295061917519,
          0.3367228105322877,
          0.5997110757332635
        ],
        [
          4.331687536522953,
          2.9522242722579017,
          31.011558820006634
        ]
      ],
      "contact_states": [
        false,
        false,
        false,
        true
      ],
      "total_force": 34.509103512323684,
      "center_of_pressure": [
        0.0,
        0.0
      ],
      "force_magnitude": [
        2.0166929166914107,
        1.2010207004077105,
        0.78636604827594,
        31.45148526722559
      ],
      "stability_index": 0.0,
      "force_balance": 0.15641737456505334
    },
    {
      "timestamp": 1751017373.3275945,
      "foot_forces": [
        [
          -0.23782985263829093,
          -0.07058984492193177,
          0.7362047656480715
        ],
        [
          -2.628435107759164,
          0.24689477569680296,
          46.75847543685392
        ],
        [
          4.521785082769302,
          1.2418148181959223,
          16.067550400078616
        ],
        [
          3.806860605920283,
          -1.9019799592056752,
          32.81613137184377
        ]
      ],
      "contact_states": [
        false,
        true,
        true,
        true
      ],
      "total_force": 96.37836197442437,
      "center_of_pressure": [
        0.0,
        0.0
      ],
      "force_magnitude": [
        0.7768805712430871,
        46.832944102680955,
        16.737826030775697,
        33.09090802096909
      ],
      "stability_index": 0.2812159014618263,
      "force_balance": 0.6671459656607501
    },
    {
      "timestamp": 1751017373.3304796,
      "foot_forces": [
        [
          0.6301838545231735,
          0.9446694002440776,
          0.20494576738833303
        ],
        [
          2.8192494753289736,
          2.69153170218579,
          20.007550457987378
        ],
        [
          0.5329259762628225,
          -0.6031003447436281,
          0.41206124230455266
        ],
        [
          0.8060588156646404,
          0.20744111388895914,
          1.4468026919763874
        ]
      ],
      "contact_states": [
        false,
        true,
        false,
        false
      ],
      "total_force": 22.071360159656653,
      "center_of_pressure": [
        0.0,
        0.0
      ],
      "force_magnitude": [
        1.153921459125179,
        20.383684304779763,
        0.9041761937892064,
        1.6691317082699904
      ],
      "stability_index": 0.0,
      "force_balance": 0.11217573027055083
    },
    {
      "timestamp": 1751017373.333375,
      "foot_forces": [
        [
          -0.3763380231193656,
          -0.7650268606436135,
          0.4115178516823228
        ],
        [
          -3.4210222122537726,
          -1.8342194595979877,
          20.48807020853319
        ],
        [
          4.856371963138811,
          0.9773061450494005,
          37.37332736814932
        ],
        [
          -0.528971576389121,
          -0.8810539572172011,
          1.739555993990502
        ]
      ],
      "contact_states": [
        false,
        true,
        true,
        false
      ],
      "total_force": 60.01247142235533,
      "center_of_pressure": [
        0.0,
        0.0
      ],
      "force_magnitude": [
        0.9467012978785068,
        20.852548402353293,
        37.700199926689656,
        2.0204262076066932
      ],
      "stability_index": 0.0,
      "force_balance": 0.7186375305095971
    },
    {
      "timestamp": 1751017373.3362331,
      "foot_forces": [
        [
          0.8357515713529322,
          -0.7106094676870089,
          0.826967659217287
        ],
        [
          -0.12846172345994855,
          -0.7744012484899823,
          0.6445928063985893
        ],
        [
          -0.2680006785549969,
          2.568119704408107,
          13.349062417235057
        ],
        [
          -2.901092402246416,
          4.803766093178822,
          46.45254933247153
        ]
      ],
      "contact_states": [
        false,
        false,
        true,
        true
      ],
      "total_force": 61.27317221532246,
      "center_of_pressure": [
        0.0,
        0.0
      ],
      "force_magnitude": [
        1.3737983891301622,
        1.0157261412988998,
        13.59648964251849,
        46.79029648645162
      ],
      "stability_index": 0.0,
      "force_balance": 0.2553742523249883
    },
    {
      "timestamp": 1751017373.339093,
      "foot_forces": [
        [
          -0.043972277592125186,
          -0.5872360974367665,
          0.29691254698215963
        ],
        [
          -0.9940066739849995,
          -0.339049709546696,
          1.3017587296983093
        ],
        [
          -0.4870727546357212,
          -0.48961932501559247,
          0.9062983963975566
        ],
        [
          -4.605840462212187,
          2.275381129393854,
          45.189594539031155
        ]
      ],
      "contact_states": [
        false,
        false,
        false,
        true
      ],
      "total_force": 47.69456421210918,
      "center_of_pressure": [
        0.0,
        0.0
      ],
      "force_magnitude": [
        0.659497426746182,
        1.672596712843887,
        1.13944887338131,
        45.48066160742813
      ],
      "stability_index": 0.0,
      "force_balance": 0.058746363791050527
    },
    {
      "timestamp": 1751017373.3419323,
      "foot_forces": [
        [
          4.994940460617618,
          -1.185095687920934,
          20.270758182039295
        ],
        [
          -4.89479940430112,
          0.7046399822796809,
          46.26592229468542
        ],
        [
          -2.451377195072648,
          -0.76542104255652,
          33.013191469587504
        ],
        [
          0.8556347559251254,
          -0.5019472963175455,
          1.2352638121150297
        ]
      ],
      "contact_states": [
        true,
        true,
        true,
        false
      ],
      "total_force": 100.78513575842724,
      "center_of_pressure": [
        0.0,
        0.0
      ],
      "force_magnitude": [
        20.910703461848353,
        46.52946533639564,
        33.11292693998155,
        1.5842785769392005
      ],
      "stability_index": 0.3408186387709168,
      "force_balance": 0.8111279582383001
    },
    {
      "timestamp": 1751017373.3448367,
      "foot_forces": [
        [
          -1.9334727663071583,
          0.9616887692816025,
          29.318098024748373
        ],
        [
          -2.3303301253050144,
          4.508778481166729,
          15.63101884927088
        ],
        [
          -1.184359321309202,
          0.6853423491574464,
          17.29952885281184
        ],
        [
          -3.6411116123398823,
          -4.081164458669989,
          26.753116370397144
        ]
      ],
      "contact_states": [
        true,
        true,
        true,
        true
      ],
      "total_force": 89.00176209722824,
      "center_of_pressure": [
        0.0,
        0.0
      ],
      "force_magnitude": [
        29.397517480490905,
        16.434362541680702,
        17.353561584492965,
        27.306461371628494
      ],
      "stability_index": 0.735490577548777,
      "force_balance": 0.9711805520035753
    },
    {
      "timestamp": 1751017373.3476896,
      "foot_forces": [
        [
          2.1536145578856933,
          0.3881320193411977,
          40.71541236474865
        ],
        [
          -0.9549795876353404,
          -0.5524006819706329,
          1.9826476650642977
        ],
        [
          0.8380885404568454,
          -0.562480934884281,
          1.9708452000383652
        ],
        [
          0.8353895186491691,
          -0.2188933361648251,
          0.39472463176938155
        ]
      ],
      "contact_states": [
        true,
        false,
        false,
        false
      ],
      "total_force": 45.0636298616207,
      "center_of_pressure": [
        0.0,
        0.0
      ],
      "force_magnitude": [
        40.77417695257505,
        2.268925800908151,
        2.2142736972352006,
        0.9495248682429184
      ],
      "stability_index": 0.0,
      "force_balance": 0.10524989094766302
    },
    {
      "timestamp": 1751017373.3505654,
      "foot_forces": [
        [
          0.18463981123087425,
          -0.9294183151768602,
          0.8682845158162198
        ],
        [
          0.9088364033630558,
          2.8817388063941056,
          33.265173174957674
        ],
        [
          -0.436321988964508,
          3.602881448557934,
          21.660581262242143
        ],
        [
          4.541917350229722,
          4.233935584469302,
          31.267573544222333
        ]
      ],
      "contact_states": [
        false,
        true,
        true,
        true
      ],
      "total_force": 87.06161249723837,
      "center_of_pressure": [
        0.0,
        0.0
      ],
      "force_magnitude": [
        1.2852347119821241,
        33.402127904016524,
        21.96251151914581,
        31.878148928272257
      ],
      "stability_index": 0.4101739981233796,
      "force_balance": 0.6508301631862103
    },
    {
      "timestamp": 1751017373.3535202,
      "foot_forces": [
        [
          -0.1654352871556335,
          0.04424797958401716,
          0.2259154598273143
        ],
        [
          0.3841141082312507,
          0.14640101070325073,
          1.7254358176104894
        ],
        [
          -0.3797694822135522,
          -0.4720922726807193,
          1.5893938110741217
        ],
        [
          -0.3804134111460442,
          0.8760737411789097,
          1.7796129962360467
        ]
      ],
      "contact_states": [
        false,
        false,
        false,
        false
      ],
      "total_force": 5.320358084747972,
      "center_of_pressure": [
        0.0,
        0.0
      ],
      "force_magnitude": [
        0.2834863540322909,
        1.7737264909704653,
        1.7009610989750228,
        2.0197133409806503
      ],
      "stability_index": 0.5178891725083119,
      "force_balance": 0.7079712471115875
    },
    {
      "timestamp": 1751017373.3565314,
      "foot_forces": [
        [
          0.23779911276054944,
          -0.5092420225815057,
          1.7962423788318624
        ],
        [
          -0.22681986514535102,
          0.01486386761152958,
          1.5912772732446196
        ],
        [
          0.5217581957380344,
          -0.40326486579867704,
          1.074235109468432
        ],
        [
          0.01231258925135359,
          -0.647469298592547,
          1.9038536543865467
        ]
      ],
      "contact_states": [
        false,
        false,
        false,
        false
      ],
      "total_force": 6.36560841593146,
      "center_of_pressure": [
        0.0,
        0.0
      ],
      "force_magnitude": [
        1.882116505188814,
        1.6074301061414025,
        1.26049007819264,
        2.0109765860882134
      ],
      "stability_index": 0.7995470390229522,
      "force_balance": 0.9187756880422985
    },
    {
      "timestamp": 1751017373.35945,
      "foot_forces": [
        [
          -0.08658625592547797,
          -0.00766010363182934,
          0.3279319473284896
        ],
        [
          1.7550760571111397,
          2.1398879264831736,
          16.462057682996058
        ],
        [
          0.49444982063758425,
          0.07541937095645301,
          0.5594864340922043
        ],
        [
          -0.9339932295928381,
          -3.4892086715374813,
          21.2865016915131
        ]
      ],
      "contact_states": [
        false,
        true,
        false,
        true
      ],
      "total_force": 38.63597775592985,
      "center_of_pressure": [
        0.0,
        0.0
      ],
      "force_magnitude": [
        0.3392568628362557,
        16.69307507508556,
        0.7504623751909331,
        21.59078680292239
      ],
      "stability_index": 0.02969494392740013,
      "force_balance": 0.4575374828978442
    },
    {
      "timestamp": 1751017373.3623722,
      "foot_forces": [
        [
          -0.7538535608678385,
          0.013088066546596,
          1.7757799386084718
        ],
        [
          0.846155935140803,
          0.7241215135078556,
          0.8192972770374056
        ],
        [
          -0.33793892807414805,
          0.4324028981693344,
          0.7255750938972099
        ],
        [
          2.944211729762424,
          1.1299371026595217,
          12.4489554494089
        ]
      ],
      "contact_states": [
        false,
        false,
        false,
        true
      ],
      "total_force": 15.769607758951986,
      "center_of_pressure": [
        0.0,
        0.0
      ],
      "force_magnitude": [
        1.9292125023136657,
        1.3825989516341395,
        0.9097440312181712,
        12.842181759615643
      ],
      "stability_index": 0.0,
      "force_balance": 0.3231806602962874
    },
    {
      "timestamp": 1751017373.3653114,
      "foot_forces": [
        [
          3.663043775508866,
          2.9006479663315794,
          11.567549259128063
        ],
        [
          2.368299692046384,
          -0.8291726051369119,
          22.565497571686535
        ],
        [
          -0.02256601751766585,
          0.8233220323278032,
          0.7433420282657008
        ],
        [
          0.8353416702851779,
          0.5421947766960702,
          0.5543830165425376
        ]
      ],
      "contact_states": [
        true,
        true,
        false,
        false
      ],
      "total_force": 35.43077187562284,
      "center_of_pressure": [
        0.0,
        0.0
      ],
      "force_magnitude": [
        12.47556989432675,
        22.704582165242492,
        1.1094709392540023,
        1.1397856864437874
      ],
      "stability_index": 0.0,
      "force_balance": 0.3840903150508283
    },
    {
      "timestamp": 1751017373.3682568,
      "foot_forces": [
        [
          -0.3756913084119953,
          3.611720087356513,
          29.447323170396498
        ],
        [
          0.16905888223908683,
          3.6220566667738225,
          35.43452792550062
        ],
        [
          1.8701067983170532,
          2.4923314963512277,
          39.267571460565534
        ],
        [
          0.09566012014067149,
          0.49416727358329404,
          0.4548415315969385
        ]
      ],
      "contact_states": [
        true,
        true,
        true,
        false
      ],
      "total_force": 104.6042640880596,
